{"sym_hyper_parameters": {"radial_etas": [0.003213960910215974, 0.03571067750453949, 0.07142135500907898, 0.12498737126588821, 0.21426406502723694, 0.3571067750453949, 0.7142135500907898, 1.4284271001815796], "angular_etas": [0.00035710676456801593, 0.00035710676456801593, 0.00035710676456801593, 0.00035710676456801593, 0.010713203810155392, 0.010713203810155392, 0.010713203810155392, 0.010713203810155392, 0.02856854349374771, 0.02856854349374771, 0.053566016256809235, 0.053566016256809235, 0.053566016256809235, 0.053566016256809235, 0.08927669376134872, 0.08927669376134872, 0.08927669376134872, 0.08927669376134872, 0.1606980562210083, 0.1606980562210083, 0.1606980562210083, 0.1606980562210083], "lambdas": [-1.0, 1.0, -1.0, 1.0, -1.0, 1.0, -1.0, 1.0, 1.0, 1.0, 1.0, 1.0, 1.0, 1.0, 1.0, 1.0, 1.0, 1.0, 1.0, 1.0, 1.0, 1.0], "zetas": [1.0, 1.0, 2.0, 2.0, 1.0, 1.0, 2.0, 2.0, 1.0, 2.0, 1.0, 2.0, 4.0, 16.0, 1.0, 2.0, 4.0, 16.0, 1.0, 2.0, 4.0, 16.0], "cutoff_distance": 3.0}, "Layer 0": {"Weight": [[0.1622731238603592, 0.23783448338508606, -0.3313017189502716, -0.1530468612909317, 0.33581697940826416, -0.07733660191297531, 0.08542260527610779, -0.4489609897136688, -0.25276678800582886, 0.008100333623588085, -0.010258683003485203, 0.4370660185813904, 0.014473030343651772, -0.06944121420383453, 0.3202955722808838, -0.15315775573253632, -0.06607416272163391, 0.20623329281806946, -0.14188790321350098, -0.3834538757801056, -0.13731886446475983, -0.03528045490384102, 0.23878879845142365, 0.23441079258918762, -0.08539706468582153, -0.31523531675338745, 0.3105277419090271, -0.43586495518684387, 0.08145898580551147, -0.0010736037511378527], [0.38800349831581116, 0.13611595332622528, -0.12226710468530655, -0.3692125082015991, 0.05395600572228432, 0.2618817687034607, -0.1454421877861023, -0.2122863382101059, -0.13572250306606293, 0.05665358155965805, 0.11638367176055908, 0.14058230817317963, -0.15690597891807556, -0.16640964150428772, 0.03947105258703232, -0.0292680561542511, -0.3159967362880707, 0.3283846974372864, -0.3016023337841034, -0.13649098575115204, -0.12523485720157623, 0.38998889923095703, 0.34876585006713867, 0.27808699011802673, -0.1334509551525116, -0.3962850272655487, -0.09562228620052338, -0.21336054801940918, 0.23859935998916626, 0.0027484367601573467], [0.04714934527873993, 0.23691879212856293, -0.0690484493970871, -0.03190948814153671, 0.4038911759853363, -0.08337313681840897, 0.20370353758335114, -0.24834343791007996, 0.1696435660123825, 0.2907407581806183, -0.12213021516799927, 0.21919600665569305, -0.31917959451675415, -0.2818809747695923, 0.31532102823257446, -0.26458147168159485, -0.42646804451942444, 0.2480027675628662, -0.04979992285370827, 0.01032483484596014, -0.2830921411514282, 0.22239194810390472, 0.12369967997074127, 0.28590428829193115, 0.049603015184402466, -0.42985087633132935, 0.4010569155216217, -0.12643493711948395, 0.1132102757692337, 0.2587067484855652], [0.06388037651777267, 0.370900422334671, -0.0701545998454094, -0.16880753636360168, 0.135920450091362, 0.11937294900417328, 0.17718495428562164, 0.21731337904930115, -0.00635053776204586, 0.19961827993392944, 0.04987102746963501, 0.2969738245010376, -0.20966961979866028, -0.21033336222171783, 0.2517830729484558, -0.21027372777462006, -0.15225325524806976, 0.09181293100118637, 0.01558599341660738, -0.04727667570114136, -0.019764183089137077, 0.0915154293179512, -0.10919573158025742, 0.05338508263230324, -0.30896902084350586, -0.10896549373865128, -0.12328187376260757, 0.0792863517999649, 0.04698934778571129, 0.21118319034576416], [0.23396717011928558, 0.09241630882024765, 0.019560761749744415, -0.12788283824920654, 0.09749633073806763, 0.03827761858701706, 0.147889643907547, 0.13772621750831604, 0.2400774359703064, 0.07855018228292465, -0.07306418567895889, -0.07345173507928848, -0.07246837764978409, -0.30234214663505554, 0.16217337548732758, -0.08283250033855438, -0.1945926547050476, 0.11367138475179672, -0.2616196572780609, -0.3030591309070587, -0.09700389951467514, -0.02822493389248848, 0.17089712619781494, 0.0008573544910177588, 0.22141630947589874, -0.061659350991249084, 0.3471558690071106, -0.07948600500822067, 0.48221269249916077, 0.2925892472267151], [0.23459817469120026, 0.4067116677761078, 0.0519576333463192, -0.016147078946232796, 0.34395211935043335, -0.1403913050889969, 0.20525026321411133, 0.16551291942596436, 0.17113223671913147, -0.21552225947380066, 0.16189345717430115, 0.007886707782745361, -0.2999427020549774, 0.008373985067009926, 0.1371808499097824, -0.3899586796760559, -0.05172660946846008, -0.10362128168344498, -0.3437458276748657, -0.30897676944732666, 0.03083895891904831, -0.025340378284454346, -0.16232648491859436, 0.2783936858177185, 0.04952888935804367, -0.05117349326610565, -0.13437454402446747, -0.049303725361824036, -0.23118506371974945, 0.08651223033666611], [0.2589687407016754, -0.16535474359989166, -0.07998360693454742, -0.39276695251464844, 0.010725672356784344, 0.13518954813480377, 0.4247658848762512, -0.2090611606836319, 0.06571894884109497, 0.19468143582344055, 0.14768971502780914, -0.1407283991575241, 0.23379690945148468, -0.2961655557155609, 0.16241373121738434, -0.2775575518608093, -0.06745369732379913, 0.047571636736392975, -0.10543511062860489, 0.038103554397821426, 0.04925793036818504, -0.026715591549873352, 0.22397468984127045, 0.0024558957666158676, -0.2633010447025299, -0.11801167577505112, -0.01002191286534071, -0.30694490671157837, 0.1971275508403778, 0.20211540162563324], [0.001235463540069759, 0.43014371395111084, 0.16319885849952698, -0.2666317820549011, 0.2984696328639984, 0.3034907579421997, -0.06282752007246017, -0.2694680392742157, 0.025355229154229164, 0.1691119372844696, -0.04439897462725639, 0.22555561363697052, -0.15942929685115814, -0.1226675733923912, 0.2779363691806793, 0.07394465804100037, -0.29635992646217346, 0.09119469672441483, 0.10142955929040909, -0.09123864024877548, 0.15510833263397217, -0.1915251612663269, 0.01736164465546608, 0.1927691251039505, 0.040669385343790054, -0.04851645976305008, 0.12141674757003784, -0.20887281000614166, 0.255780965089798, -0.11588725447654724], [-0.07510776072740555, -0.16395649313926697, 0.0613754466176033, -0.02719271369278431, -0.0269244983792305, -0.1997942179441452, 0.05176946148276329, -0.1542857140302658, -0.07707042992115021, 0.13221697509288788, -0.2148049771785736, -0.05484287440776825, -0.06665301322937012, 0.07842636108398438, -0.022631509229540825, 0.20232552289962769, -0.3112005293369293, 0.2578063905239105, 0.2450294941663742, -0.06510056555271149, -0.11549210548400879, 0.3157779574394226, -0.1425599306821823, 0.25197097659111023, 0.2371431589126587, -0.19689224660396576, 0.1628897488117218, 0.085208460688591, -0.1030268669128418, 0.07062102854251862], [0.11335760354995728, -0.14378324151039124, 0.2180979698896408, -0.22675026953220367, 0.25880134105682373, -0.12385398894548416, 0.17576557397842407, 0.0065163979306817055, -0.18483111262321472, 0.3403588831424713, 0.08544297516345978, 0.2609177827835083, -0.19688305258750916, -0.31635144352912903, 0.10639822483062744, 0.06717950105667114, -0.33211442828178406, 0.013440520502626896, -0.21432097256183624, -0.36853840947151184, 0.0045498330146074295, 0.05566110089421272, 0.16527605056762695, 0.12221286445856094, -0.12907865643501282, -0.18474501371383667, -0.1050015240907669, -0.2689589560031891, -0.05582444742321968, 0.20729438960552216], [-0.0018384994473308325, 0.01329048816114664, -0.13223843276500702, -0.09293526411056519, -0.01904791221022606, 0.07534395158290863, 0.31509000062942505, 0.28560662269592285, 0.02704036980867386, -0.03254899010062218, 0.0009811223717406392, -0.07857848703861237, 0.054767314344644547, -0.19121596217155457, 0.049171287566423416, 0.056006304919719696, 0.10270359367132187, -0.16809678077697754, 0.20475710928440094, 0.003946629352867603, -0.1463918536901474, -0.2624935209751129, -0.04803306236863136, -0.1194409653544426, 0.14403878152370453, -0.06694556772708893, -0.2011290043592453, -0.001346009667031467, -0.10327787697315216, 0.1324048936367035], [0.281133770942688, 0.00035955075873062015, -0.06638149917125702, -0.22871854901313782, 0.29653245210647583, -0.3502408266067505, 0.13287058472633362, -0.031204208731651306, 0.13886532187461853, 0.07130277156829834, 0.2793852388858795, -0.00026392770814709365, 0.1712573915719986, 0.04333172366023064, -0.08236363530158997, -0.12431665509939194, 0.05476144701242447, -0.007142781745642424, -0.005414452403783798, -0.0957612544298172, -0.06034856662154198, -0.05123771354556084, 0.07174981385469437, 0.043692443519830704, 0.042292166501283646, -0.02109169401228428, 0.049879033118486404, 0.0004297498380765319, -0.13959719240665436, 0.09268089383840561], [0.21928969025611877, 0.017706386744976044, -0.18909355998039246, -0.30525892972946167, -0.043150708079338074, 0.2596534788608551, 0.20189374685287476, -0.31812724471092224, -0.0685003474354744, -0.19373741745948792, 0.14024969935417175, 0.16648811101913452, 0.288079172372818, -0.1822870522737503, -0.16260020434856415, -0.03762012720108032, -0.2356414496898651, -0.006654643919318914, -0.05307004973292351, 0.09569993615150452, 0.04289586842060089, 0.06037726625800133, -0.0687287449836731, 0.24086518585681915, -0.3209885358810425, -0.17828920483589172, 0.004786808043718338, -0.29033005237579346, 0.15083567798137665, -0.025504248216748238], [0.37764638662338257, 0.12536902725696564, -0.16533342003822327, -0.08632495999336243, 0.0019353398820385337, 0.020012296736240387, -0.11992372572422028, -0.15789496898651123, -0.08249295502901077, -0.056527361273765564, 0.04859520122408867, 0.28352445363998413, -0.08886267244815826, -0.19340360164642334, -0.2825877368450165, 0.09375816583633423, -0.0930301621556282, 0.02008184604346752, 0.08052247762680054, -0.04440644755959511, -0.00909834261983633, 0.09854209423065186, -0.11356714367866516, 0.25413066148757935, -0.20283851027488708, -0.07554656267166138, 0.25806924700737, -0.08503804355859756, -0.09881105273962021, 0.11146944761276245], [0.30396389961242676, 0.12494664639234543, 0.29293936491012573, 0.09566004574298859, -0.10472521185874939, -0.3219216465950012, 0.3800514340400696, -0.13949039578437805, -0.1079312190413475, 0.3270644545555115, 0.19415034353733063, -0.10759134590625763, -0.11442016065120697, -0.25536349415779114, 0.07922887802124023, 0.20938324928283691, 0.06339471787214279, 0.08267665654420853, 0.05869913101196289, 0.26359766721725464, -0.010986138135194778, 0.013727509416639805, 0.1677410751581192, 0.04972917586565018, -0.21086768805980682, 0.04344467446208, 0.07387388497591019, 0.029747823253273964, -0.2719975709915161, -0.23925301432609558], [0.14175717532634735, 0.2639387845993042, 0.1432105153799057, -0.08311011642217636, 0.008457529358565807, -0.10202489793300629, -0.21377423405647278, 0.0674329325556755, 0.2152833640575409, -0.10824831575155258, 0.23483389616012573, 0.005025739315897226, -0.011913863942027092, -0.22656702995300293, 0.10673364996910095, 0.16925938427448273, -0.21138007938861847, 0.11005914956331253, -0.128502756357193, -0.17150050401687622, -0.13701772689819336, 0.20845690369606018, 0.2563936412334442, 0.21144035458564758, -0.19172100722789764, 0.21942846477031708, 0.04249989241361618, 0.009435530751943588, -0.08182927221059799, 0.09658544510602951], [-0.0013352204114198685, 0.12158031761646271, 0.07775654643774033, -0.19082319736480713, 0.17779193818569183, 0.034432243555784225, 0.07338525354862213, 0.22884276509284973, 0.22887036204338074, 0.2811647951602936, 0.09760281443595886, -0.030335530638694763, 0.05722388997673988, 0.02466433495283127, -0.1594489961862564, -0.192200168967247, -0.019684091210365295, 0.14981791377067566, -0.14832305908203125, -0.07238936424255371, 0.006364741362631321, 0.020677953958511353, 0.4028473496437073, -0.17704905569553375, 0.06491666287183762, -0.3584364354610443, 0.09422025084495544, 0.0006880245637148619, 0.06330535560846329, 0.11124897003173828], [0.042087238281965256, 0.2597966194152832, -0.03773210197687149, -0.01380345318466425, 0.18870143592357635, -0.2954169809818268, 0.20719566941261292, -0.11664412915706635, -0.10047651827335358, 0.1820111870765686, 0.03788680210709572, 0.054441750049591064, 0.03380800411105156, 0.1861838698387146, -0.10728355497121811, 0.06653250008821487, -0.2308412790298462, -0.12996582686901093, 0.05087171494960785, -0.2085590958595276, -0.3027910590171814, -0.1875770390033722, 0.2459113448858261, -0.03557443246245384, 0.05410235375165939, 0.01965392380952835, 0.11491216719150543, -0.0355864092707634, -0.11113154143095016, 0.33363527059555054], [-0.0724768117070198, -0.07878316938877106, 0.2275809943675995, 0.1742234230041504, -0.11436252295970917, -0.28619328141212463, 0.08634376525878906, 0.037879593670368195, -0.010677384212613106, 0.008481326512992382, -0.3217303454875946, -0.10505425930023193, 0.07553312182426453, -0.030781177803874016, 0.07601965963840485, 0.28123411536216736, -0.03601955249905586, -0.12480922043323517, 0.028469206765294075, -0.12840838730335236, -0.0631813034415245, 0.00023257681459654123, 0.17252424359321594, 0.2130645513534546, -0.2384338676929474, -0.2293708622455597, 0.10733325779438019, -0.1251809298992157, 0.2715221345424652, 0.3387630581855774], [0.058790381997823715, 0.13565410673618317, 0.19718387722969055, -0.3110843896865845, 0.21156403422355652, -0.2333938479423523, -0.011765474453568459, 0.026183495298027992, -0.08833064883947372, 0.1979755312204361, 0.06748053431510925, 0.1082979142665863, -0.21519756317138672, 0.06985275447368622, 0.08154093474149704, -0.025300337001681328, -0.18931064009666443, 0.02652648277580738, 0.3453638255596161, -0.22766438126564026, 0.13212446868419647, -0.27637115120887756, 0.27257102727890015, 0.2692323327064514, 0.008653714321553707, -0.11496168375015259, 0.18227054178714752, -0.25133055448532104, 0.2896837294101715, -0.08657106012105942], [0.22948066890239716, -0.06522765010595322, -0.12350207567214966, -0.13625861704349518, 0.025095542892813683, -0.23220960795879364, 0.1963692158460617, -0.1470208764076233, -0.2352406531572342, 0.08371449261903763, 0.2673037648200989, -0.06509190797805786, -0.2607846260070801, 0.10826966166496277, 0.17522667348384857, 0.03053634613752365, -0.1669737845659256, -0.07445792853832245, -0.11034537106752396, -0.060929346829652786, 0.04598168656229973, 0.019103165715932846, -0.1132952868938446, 0.1442173570394516, -0.09764580428600311, -0.3913942873477936, 0.18570572137832642, 0.22849905490875244, 0.2944261133670807, 0.1698160469532013], [0.0013967410195618868, 0.035122405737638474, 0.11453405022621155, -0.1328379511833191, 0.08407029509544373, -0.029832853004336357, -0.18201518058776855, -0.034864116460084915, -0.22601410746574402, 0.03875093534588814, 0.06459122151136398, -0.03436199203133583, 0.0012983584310859442, 0.21364577114582062, 0.025207720696926117, 0.269292950630188, -0.02782563865184784, -0.08926650881767273, 0.350505530834198, 0.030112776905298233, 0.0922311544418335, -0.06246597319841385, 0.20279131829738617, -0.2632976174354553, 0.21771684288978577, -0.1581277996301651, -0.13745330274105072, 0.24709448218345642, -0.21515324711799622, -0.09185496717691422], [-0.19975239038467407, -0.06672307103872299, 0.20963577926158905, -0.0008113982621580362, 0.265914648771286, 0.0729893296957016, 0.1626100242137909, -0.12250515818595886, 0.2513176500797272, -0.10945472121238708, 0.009923319332301617, 0.011638310737907887, -0.26225486397743225, 0.07104892283678055, 0.14235258102416992, -0.04156987741589546, -0.16348548233509064, -0.0978090763092041, 0.2771868407726288, -0.2564731240272522, 0.04697348177433014, 0.33026161789894104, -0.2303948551416397, -0.11795125156641006, 0.01999567076563835, 0.04604935273528099, 0.3578549325466156, 0.11339104920625687, 0.11865131556987762, 0.12406893074512482], [0.1946958303451538, -0.07190242409706116, 0.1894155889749527, -0.22079205513000488, 0.2631848454475403, -0.11919619143009186, 0.2550657391548157, -0.015341365709900856, 0.061561938375234604, 0.27582234144210815, -0.16146136820316315, -0.3015521764755249, -0.06534271687269211, 0.1901540756225586, -0.0784149095416069, -0.15184423327445984, -0.23260147869586945, -0.3073268234729767, 0.11606400460004807, -0.03872079402208328, -0.10827012360095978, -0.019131137058138847, 0.07104315608739853, -0.062264684587717056, -0.12809208035469055, -0.21316906809806824, -0.15754461288452148, -0.1000327467918396, 0.11558164656162262, 0.34830859303474426], [-0.01822018064558506, -0.01643921248614788, -0.05571312829852104, 0.03939041495323181, -0.20653660595417023, 0.03729552403092384, 0.2625499963760376, -0.03737438842654228, -0.20755906403064728, 0.17373459041118622, 0.03552195802330971, 0.005901738069951534, -0.02378327026963234, 0.2602795660495758, -0.17028090357780457, -0.03821622207760811, 0.2352866679430008, -0.07002204656600952, -0.28265222907066345, -0.2129603922367096, -0.05553889647126198, 0.15094546973705292, -0.07509835064411163, -0.08439105749130249, -0.2097754031419754, -0.1869962215423584, 0.0662737488746643, -0.07046409696340561, 0.045620862394571304, -0.10732459276914597], [-0.05512126535177231, 0.21348610520362854, 0.24427267909049988, 0.23304228484630585, -0.06860975921154022, -0.02417999878525734, -0.058670490980148315, -0.22835536301136017, 0.18031223118305206, -0.12134011089801788, -0.22890380024909973, 0.12499121576547623, -0.3524530529975891, -0.08062667399644852, -0.2473704218864441, -0.15578393638134003, 0.3106688857078552, -0.003831750713288784, -0.06297137588262558, 0.21817195415496826, 0.14061936736106873, -0.04366345703601837, -0.14438486099243164, -0.3153690695762634, 0.28064799308776855, -0.3103189766407013, 0.07813523709774017, -0.11741999536752701, 0.04925322160124779, -0.14428481459617615], [0.14518952369689941, -0.005518002435564995, -0.12140175700187683, -0.23208120465278625, -0.037411004304885864, 0.09130043536424637, 0.07173974066972733, -0.15139219164848328, -0.21273963153362274, 0.09009349346160889, -0.06508025527000427, -0.30849289894104004, 0.10335767269134521, 0.09230281412601471, 0.2912403345108032, -0.07459308952093124, 0.10891474783420563, -0.16831590235233307, -0.16060560941696167, -0.1947593092918396, 0.12464236468076706, 0.019889526069164276, -0.09943322837352753, -0.2513858675956726, -0.06758009642362595, 0.00667125079780817, -0.1373034566640854, -0.036693427711725235, -0.0058690086007118225, 0.16698504984378815], [0.05568681284785271, 0.33636268973350525, -0.22223035991191864, -0.13375729322433472, 0.21555690467357635, -0.16227275133132935, 0.018209349364042282, -0.06957319378852844, 0.22431093454360962, -0.029644642025232315, 0.133571058511734, -0.0495842806994915, 0.21602296829223633, -0.20596027374267578, 0.11318466812372208, -0.20928336679935455, 0.10698463767766953, -0.07262001186609268, -0.0689949244260788, -0.054487504065036774, 0.13598790764808655, 0.01203443855047226, 0.047024570405483246, -0.3019578754901886, -0.25572362542152405, -0.20019544661045074, 0.2408355474472046, 0.10413384437561035, -0.1643511801958084, 0.017069995403289795], [-0.2696918845176697, 0.0723077729344368, -0.2021643966436386, 0.010971909388899803, -0.27116695046424866, -0.02827635407447815, -0.03927735239267349, 0.061914775520563126, -0.0272922795265913, -0.1027083694934845, 0.0041000996716320515, -0.025839250534772873, -0.16678830981254578, -0.12433932721614838, -0.13318349421024323, 0.17154677212238312, 0.20353557169437408, 0.319165974855423, -0.0017080610850825906, 0.025482958182692528, 3.888551509589888e-05, 0.15255862474441528, 0.06245851516723633, 0.004827880300581455, -0.14109356701374054, -0.031228482723236084, -0.03811580687761307, 0.20348335802555084, 0.007645529694855213, 0.18059255182743073], [0.1624518632888794, 0.1620124727487564, -0.1193058043718338, 0.29521751403808594, -0.04531420022249222, 0.13209092617034912, -0.18517424166202545, -0.22308212518692017, -0.13290706276893616, 0.05936127528548241, 0.014616486616432667, -0.3278888761997223, -0.0011458168737590313, -0.0791039690375328, -0.0517655648291111, -0.055196862667798996, -0.13866201043128967, 0.1539078801870346, 0.005897681228816509, -0.0065128616988658905, -0.01520955003798008, -0.01026944164186716, 0.1331251859664917, 0.039082903414964676, 0.31886816024780273, 0.30923891067504883, -0.0005460695247165859, 0.20609012246131897, 0.015302196145057678, -0.14217618107795715]], "Bias": [0.10435768961906433, 0.09679914265871048, -0.13644425570964813, -0.11703234165906906, 0.11866971105337143, -0.014827878214418888, 0.11432714015245438, -0.1353459656238556, 0.017899690195918083, 0.07909445464611053, 0.05676976218819618, 0.12389876693487167, -0.12561838328838348, -0.13455291092395782, 0.09255880117416382, -0.1110340878367424, -0.12123628705739975, 0.08834806829690933, -0.07179860025644302, -0.10929971933364868, -0.0217392910271883, 0.09298992902040482, 0.11782383173704147, 0.12081116437911987, -0.10237720608711243, -0.09117519855499268, 0.11516278982162476, -0.12422706186771393, 0.13011057674884796, 0.12150603532791138]}, "Layer 1": {"Weight": [[-0.16731518507003784, 0.06470450013875961, -0.05364661291241646, -0.05093177407979965, 0.17939649522304535, -0.4262225031852722, 0.3012731969356537, 0.38201743364334106, -0.10879294574260712, -0.13275480270385742, 0.2532687187194824, 0.07527356594800949, 0.22916649281978607, 0.019537031650543213, -0.04232488200068474, 0.03946811705827713, 0.05889282003045082, 0.056245673447847366, -0.22483429312705994, -0.09168750047683716, 0.08418186753988266, -0.16347737610340118, 0.02208358608186245, -0.326700896024704, -0.010733909904956818, -0.012843319214880466, -0.26955172419548035, -0.13509047031402588, -0.37187251448631287, 0.08238175511360168], [-0.1824454367160797, 0.12032400071620941, -0.25115880370140076, -0.06972228735685349, 0.2588684856891632, -0.07557855546474457, 0.06424915045499802, -0.06486420333385468, -0.1378573328256607, -0.15668118000030518, 0.40029993653297424, 0.004028114955872297, -0.14003287255764008, 0.03880421444773674, -0.24978648126125336, 0.26117414236068726, 0.09524654597043991, -0.14689774811267853, -0.04785779118537903, 0.3744073510169983, 0.2923422157764435, -0.28828519582748413, 0.3419814109802246, 0.0012236874317750335, 0.12949757277965546, 0.039983008056879044, -0.1284666806459427, -0.2023562639951706, -0.30258437991142273, -0.21544814109802246], [0.10271093994379044, -0.09967295825481415, 0.02808883599936962, -0.15495771169662476, -0.2065535932779312, 0.16794808208942413, -0.11606545746326447, -0.03287752717733383, -0.03987259045243263, 0.33359867334365845, 0.05397668108344078, 0.06711433827877045, -0.2858356833457947, 0.12695646286010742, -0.032515209168195724, -0.06569188088178635, 0.18049713969230652, 0.05830521509051323, 0.060265302658081055, -0.013444419950246811, -0.2700709104537964, 0.05738993361592293, -0.23211388289928436, -0.0025483372155576944, -0.1914992332458496, -0.20677755773067474, 0.22341400384902954, 0.12545424699783325, 0.30324020981788635, 0.13271409273147583], [0.17420075833797455, 0.21879248321056366, -0.1673157662153244, 0.25938618183135986, -0.20194098353385925, 0.18560421466827393, -0.2647452652454376, -0.12456165254116058, 0.05089092627167702, 0.14462988078594208, -0.2921520471572876, -0.2841790020465851, -0.0210339967161417, 0.14243710041046143, 0.052428219467401505, -0.30950242280960083, 0.21014542877674103, 0.36205005645751953, 0.16422370076179504, 0.26441916823387146, -0.010217844508588314, 0.40231460332870483, 0.17487242817878723, 0.2315359264612198, -0.05902827903628349, -0.20617346465587616, -0.021827926859259605, 0.033280499279499054, -0.00627550296485424, 0.18706712126731873], [0.09303147345781326, -0.3733062744140625, -0.04274224489927292, -0.09829173982143402, -0.05626311153173447, -0.2580316662788391, 0.23109027743339539, -0.08510937541723251, 0.0007769017829559743, -0.19896072149276733, 0.17851786315441132, 0.0807373970746994, 0.07811283320188522, -0.1443515419960022, -0.160008504986763, 0.007415503729134798, -0.28843459486961365, -0.43129095435142517, 0.01751071773469448, -0.04564213007688522, 0.09783463180065155, -0.24636003375053406, 0.06790553778409958, -0.04104093089699745, 0.22813953459262848, 0.10331510752439499, -0.023283179849386215, -0.42855048179626465, -0.12369439750909805, -0.1185302883386612], [0.005167854484170675, 0.2435329556465149, -0.20754070580005646, -0.04278815910220146, -0.31545698642730713, -0.020077235996723175, 0.3108772933483124, -0.10550791770219803, -0.15719398856163025, 0.24744245409965515, 0.2650960087776184, -0.11936277896165848, 0.24084527790546417, -0.1543869972229004, -0.20534370839595795, 0.33596542477607727, 0.15336231887340546, -0.1368384212255478, -0.025180792436003685, -0.08166411519050598, -0.2054893970489502, 0.21613319218158722, 0.06017545238137245, -0.15785352885723114, 0.3116708993911743, -0.05753699690103531, 0.2789818346500397, -0.22479340434074402, -0.18282470107078552, 0.07515889406204224], [-0.3381541967391968, -0.34790071845054626, -0.055901702493429184, -0.19485695660114288, 0.10128781944513321, 0.1096222847700119, -0.0873393788933754, 0.22388043999671936, -0.2284001260995865, -0.10490714013576508, 0.09650003910064697, -0.04859394580125809, 0.14926938712596893, -0.30208250880241394, -0.3649873435497284, -0.010518589057028294, -0.33766165375709534, -0.0400812104344368, -0.11101517081260681, 0.07987797260284424, 0.46261537075042725, 0.0529240183532238, 0.1589319258928299, -0.3295203447341919, 0.22903531789779663, 0.15597744286060333, -0.1581634283065796, -0.3202441930770874, -0.44362396001815796, -0.05482833832502365], [0.4339495897293091, 0.3104884922504425, -0.01719059981405735, 0.1673203855752945, -0.13858824968338013, -0.03170742094516754, 0.0013414379209280014, 0.09338412433862686, 0.09372173994779587, 0.08500488847494125, -0.38300997018814087, -0.2508446276187897, -0.20763280987739563, 0.11004717648029327, -0.001907347235828638, 0.0399402379989624, 0.052850037813186646, -0.08889622986316681, 0.1772182136774063, -0.17472997307777405, -0.32162201404571533, -0.01093970239162445, 0.08902520686388016, -0.007577123586088419, -0.11485201865434647, -0.11438164860010147, 0.3205791115760803, 0.09377920627593994, 0.07860114425420761, 0.36414834856987], [0.3139539361000061, -0.11999371647834778, -0.10800715535879135, 0.03828168660402298, 0.08060986548662186, 0.12945938110351562, -0.03601547330617905, 0.08907870948314667, 0.1769358366727829, 0.08440661430358887, -0.10699228197336197, -0.13506317138671875, 0.15662285685539246, 0.16196772456169128, 0.28700029850006104, 0.02781645767390728, 0.29941147565841675, 0.0509771928191185, 0.02565440908074379, 0.15477445721626282, -0.16867724061012268, 0.016707206144928932, 0.2198261171579361, -0.22085963189601898, -0.13540619611740112, -0.1926068514585495, 0.1858995258808136, 0.19750452041625977, 0.3152197003364563, 0.1034129336476326], [-0.24910968542099, 0.08300923556089401, 0.3131483495235443, -0.01564243994653225, 0.03078329935669899, 0.040762245655059814, 0.018891384825110435, 0.23411411046981812, -0.046929266303777695, -0.059638265520334244, 0.167173370718956, 0.22280989587306976, -0.07807550579309464, -0.48688367009162903, -0.13835252821445465, 0.33921727538108826, 0.10457951575517654, -0.050489816814661026, -0.04216839000582695, -0.1005866602063179, -0.19371818006038666, -0.20582269132137299, 0.22979965806007385, -0.13669773936271667, -0.24006174504756927, 0.10931465029716492, -0.2710230350494385, 0.1171884685754776, -0.31014084815979004, -0.45473507046699524], [-0.02087155543267727, 0.12709084153175354, 0.3277936577796936, -0.008780947886407375, 0.1311505138874054, -0.06041834503412247, 0.05924423038959503, -0.23377050459384918, -0.07483594119548798, -0.19762445986270905, 0.24149540066719055, 0.006310055963695049, 0.06056065484881401, -0.29453185200691223, -0.11424536257982254, 0.04523161053657532, -0.03307829797267914, -0.0829939916729927, -0.008249090984463692, 0.25080403685569763, 0.1648673117160797, 0.1573641151189804, 0.0839739441871643, 0.06031424552202225, -0.07121829688549042, 0.06053632125258446, 0.016792910173535347, 0.18703247606754303, 0.03568374365568161, 0.03086816519498825], [-0.009547327645123005, -0.12849247455596924, -0.09825454652309418, 0.03972916677594185, -0.038682401180267334, -0.30419445037841797, 0.019736316055059433, 0.1900075078010559, 0.05174722895026207, -0.38433945178985596, 0.33837807178497314, 0.29482388496398926, -0.1807607263326645, -0.10589674860239029, -0.21145586669445038, 0.045325763523578644, -0.43914520740509033, -0.29167571663856506, -0.28980711102485657, -0.04604009538888931, 0.07871023565530777, 0.0016857938608154655, 0.00384359247982502, -0.1799260526895523, 0.3395550847053528, 0.21078626811504364, 0.1414850503206253, -0.22273994982242584, 0.16692185401916504, -0.09971081465482712], [0.0908925011754036, 0.024957304820418358, 0.1922505646944046, 0.41627562046051025, -0.04504178464412689, -0.04456912726163864, 0.1289270669221878, -0.2183275818824768, -0.020441006869077682, -0.05507492646574974, -0.10064863413572311, 0.13606755435466766, -0.26969343423843384, 0.044147949665784836, 0.033608581870794296, -0.22595036029815674, 0.353816419839859, 0.19164685904979706, 0.388011634349823, -0.11872047185897827, -0.04875867813825607, 0.20733118057250977, -0.23579935729503632, 0.2920278012752533, -0.1838478446006775, 0.1794346570968628, -0.016948172822594643, -0.04885519668459892, -0.11609883606433868, 0.14823712408542633], [0.3311460316181183, 0.21646085381507874, 0.02612094208598137, 0.05508524924516678, -0.17416292428970337, 0.3233586847782135, -0.1001780554652214, 0.03274980187416077, 0.04242624714970589, 0.19688211381435394, -0.3031476140022278, 0.039731163531541824, -0.18908174335956573, 0.05542026460170746, 0.4392530918121338, -0.41727468371391296, 0.28133055567741394, 0.13843347132205963, 0.17304885387420654, 0.19900399446487427, -0.12061159312725067, -0.011783412657678127, 0.050124600529670715, -0.1625434309244156, -0.04776706174015999, -0.19446125626564026, 0.3162146806716919, 0.22497355937957764, 0.42686617374420166, 0.08055374771356583], [-0.23683814704418182, -0.2992410957813263, 0.2735884487628937, -0.3211156725883484, 0.0658206045627594, -0.26575741171836853, -0.04265477508306503, -0.03687617555260658, -0.12599487602710724, -0.2767774760723114, -0.07363142818212509, 0.1732097864151001, -0.023398621007800102, -0.4572136402130127, -0.0767681896686554, 0.1870202273130417, -0.2946643531322479, -0.13479448854923248, 0.057972293347120285, 0.2952602207660675, 0.30593642592430115, -0.2509705722332001, 0.05367276445031166, -0.12451723963022232, 0.2251959592103958, 0.1205606535077095, 0.04426351562142372, -0.07580108940601349, 0.21479488909244537, -0.19393965601921082], [-0.19269321858882904, 0.03993888944387436, 0.1573951244354248, 0.14483800530433655, -0.25258827209472656, -0.18132227659225464, -0.2560073137283325, -0.06947091966867447, 0.040085624903440475, 0.3523098826408386, -0.28753167390823364, -0.05244474858045578, -0.03943372517824173, 0.2659768760204315, 0.0690741315484047, -0.15759488940238953, 0.3339933156967163, 0.04806135594844818, -0.1090731993317604, -0.19187141954898834, 0.044075511395931244, 0.005111980251967907, -0.07226976752281189, 0.1786171793937683, -0.09137669205665588, -0.01849900558590889, 0.3654117286205292, 0.05034317076206207, 0.3553062379360199, 0.32291921973228455], [0.3366760015487671, 0.0756375789642334, -0.05377145856618881, -0.04351821169257164, -0.13186223804950714, -0.12997157871723175, 0.086237333714962, -0.009706557728350163, 0.0793093591928482, 0.18563884496688843, -0.318477988243103, -0.2921140789985657, -0.08040042221546173, -0.07069818675518036, 0.3421662747859955, 0.007967471145093441, 0.13253052532672882, 0.10615085810422897, 0.0451025664806366, -0.16907751560211182, -0.007059394847601652, 0.27594128251075745, 0.11157801747322083, -0.02018054388463497, -0.18973670899868011, -0.21318833529949188, 0.22546041011810303, 0.1702115684747696, 0.2077355533838272, 0.24658937752246857], [0.18685400485992432, -0.031389351934194565, 0.16816465556621552, -0.06350419670343399, -0.046991460025310516, 0.09448359906673431, 0.2642427384853363, 0.254940003156662, -0.16309522092342377, -0.2314443737268448, -0.10302425175905228, -0.19189386069774628, -0.19924739003181458, -0.11569662392139435, -0.2352885603904724, -0.0777742862701416, -0.22267498075962067, -0.217170849442482, -0.0740189254283905, 0.24857842922210693, 0.02280735969543457, -0.009697225876152515, 0.37780728936195374, -0.21480496227741241, -0.009855382144451141, -0.024912407621741295, 0.12500981986522675, -0.2086023986339569, -0.04300833120942116, -0.42361024022102356], [0.21693401038646698, 0.17589335143566132, -0.15821298956871033, 0.2661132514476776, 0.015416488982737064, 0.2650071978569031, -0.3365343511104584, 0.059803809970617294, 0.07934741675853729, 0.18993578851222992, -0.18832756578922272, -0.32416850328445435, -0.20870070159435272, 0.07965920120477676, 0.13592642545700073, -0.13654646277427673, 0.1488686501979828, -0.12429162114858627, -0.06581238657236099, -0.15036961436271667, 0.10836447030305862, -0.18187005817890167, -0.3570789694786072, -0.17809593677520752, -0.0014515334041789174, -0.1277093142271042, -0.2119835615158081, -0.185454860329628, 0.012259301729500294, -0.09694483876228333], [0.41502347588539124, 0.44332125782966614, -0.051760945469141006, 0.1945558339357376, -0.13683561980724335, 0.3084690272808075, -0.07667092978954315, -0.018251823261380196, 0.23605461418628693, 0.24834491312503815, -0.3235841989517212, -0.1845744550228119, 0.012319402769207954, 0.27996233105659485, 0.1830553114414215, -0.14636869728565216, 0.19705826044082642, -0.07886159420013428, 0.19833984971046448, 0.030064402148127556, -0.35742273926734924, 0.1815025806427002, -0.3740212619304657, -0.19406557083129883, -0.17872017621994019, -0.1325869858264923, -0.21508872509002686, 0.2722439467906952, 0.37752455472946167, -0.07691134512424469], [0.14255189895629883, -0.04586732015013695, 0.026036718860268593, 0.22885732352733612, 0.014574670232832432, -0.24476200342178345, 0.13834306597709656, -0.10766024887561798, 0.13403096795082092, 0.13564078509807587, -0.3395267426967621, -0.1753467321395874, -0.2904098629951477, -0.13939133286476135, -0.20016568899154663, 0.03434591367840767, 0.07606998831033707, 0.016744505614042282, -0.13340814411640167, 0.008175143040716648, 0.017033688724040985, 0.11609870195388794, -0.18339096009731293, -0.017373332753777504, -0.09988636523485184, -0.043418943881988525, -0.11711211502552032, -0.2551794946193695, 0.19021260738372803, 0.09466103464365005], [-0.023361416533589363, -0.09967460483312607, 0.18128380179405212, 0.17093650996685028, 0.2813740074634552, -0.26012930274009705, 0.11807622760534286, -0.0498146191239357, -0.17381532490253448, -0.17841395735740662, -0.12575939297676086, -0.06148297339677811, 0.017731210216879845, -0.05618956312537193, 0.17378902435302734, 0.11704089492559433, -0.09888485819101334, -0.09894083440303802, -0.06116034835577011, 0.4002488851547241, 0.3720127046108246, -0.262755811214447, 0.17815744876861572, -0.26826199889183044, 0.14881014823913574, 0.2192239761352539, -0.06916818022727966, -0.24538956582546234, 0.12838901579380035, -0.0754011794924736], [-0.1429823487997055, 0.15616191923618317, 0.08480972796678543, -0.12730608880519867, 0.042268574237823486, -0.165875643491745, 0.06431034207344055, 0.2013746052980423, -0.4045184254646301, 0.07929102331399918, -0.14171497523784637, -0.1520748883485794, 0.27551963925361633, 0.1262912005186081, -0.19692808389663696, 0.24770718812942505, -0.23907676339149475, -0.16733089089393616, -0.27022019028663635, -0.22297705709934235, 0.4380953311920166, -0.28643399477005005, 0.4113839268684387, 0.07946982979774475, 0.42200833559036255, -0.09443408250808716, -0.054367877542972565, -0.01817505806684494, -0.24998603761196136, -0.13450582325458527], [0.05337229743599892, -0.3740830719470978, 0.12447261810302734, 0.06130256876349449, -0.10098929703235626, -0.01619129255414009, 0.34001973271369934, 0.0001229472109116614, -0.2183506190776825, 0.16644015908241272, 0.02568213827908039, 0.05650096386671066, 0.3346625566482544, -0.0880163237452507, -0.2468113899230957, 0.30206504464149475, -0.19027939438819885, -0.1299094557762146, -0.014372391626238823, -0.08504325151443481, -0.07727611809968948, -0.15503990650177002, 0.08467607200145721, -0.23762147128582, 0.22572234272956848, -0.17095090448856354, 0.03215046599507332, -0.031878501176834106, -0.026279492303729057, -0.04243605583906174], [0.2933909595012665, 0.12279629707336426, -0.07510633021593094, 0.32372698187828064, -0.07161740213632584, 0.23202605545520782, -0.033817216753959656, -0.3273330330848694, -0.04008961468935013, 0.33732786774635315, 0.07030095160007477, -0.23245041072368622, 0.2158510386943817, 0.34865841269493103, 0.11754956841468811, -0.450673907995224, 0.34159764647483826, 0.09378749132156372, -0.09971124678850174, -0.10916394740343094, -0.4157795011997223, 0.26451021432876587, 0.11361771821975708, 0.2765690088272095, -0.1614675670862198, -0.37904247641563416, 0.051339756697416306, 0.31430894136428833, 0.4313461184501648, 0.18787887692451477], [-0.020302558317780495, -0.016842493787407875, 0.10688113421201706, 0.07754088938236237, -0.16540944576263428, 0.16550613939762115, -0.21843701601028442, -0.3607690632343292, 0.016635634005069733, -0.0323713980615139, -0.07570779323577881, 0.005751396995037794, -0.28682243824005127, 0.24169960618019104, 0.08674490451812744, -0.12493526190519333, 0.05120890587568283, 0.3544672727584839, 0.09513523429632187, -0.398350328207016, -0.284299373626709, -0.04179415479302406, -0.35353899002075195, 0.4280764162540436, -0.03730633854866028, 0.09337504953145981, 0.2289237082004547, 0.2387012392282486, 0.21471230685710907, -0.06552273780107498], [-0.2524479627609253, -0.3297286331653595, 0.17561472952365875, -0.20358462631702423, 0.32898542284965515, 0.056822121143341064, 0.26727890968322754, 0.30992966890335083, -0.0798991397023201, -0.05892191454768181, -0.04734222963452339, 0.22811277210712433, -0.018767282366752625, -0.4463692307472229, 0.06922266632318497, -0.06091558188199997, -0.03997033089399338, -0.29009419679641724, -0.19834654033184052, 0.13722045719623566, 0.18489238619804382, -0.35713815689086914, 0.04226134717464447, -0.33279886841773987, -0.06816872954368591, -0.23662565648555756, -0.11339758336544037, -0.022305438295006752, 0.08254633098840714, 0.007129439152777195], [0.15364186465740204, 0.07718371599912643, -0.033125195652246475, 0.24963511526584625, -0.14945417642593384, 0.42545610666275024, -0.05548129230737686, -0.2500704526901245, 0.3650420904159546, 0.033064473420381546, -0.17195028066635132, -0.36110779643058777, 0.04588836431503296, 0.012073930352926254, 0.30473724007606506, 0.2562607228755951, -0.047431714832782745, 0.28002598881721497, 0.09385261684656143, -0.18595969676971436, -0.3632648289203644, -0.0187896229326725, -0.06762085855007172, -0.03612851724028587, -0.2720501124858856, -0.28484252095222473, 0.20043323934078217, 0.12193512916564941, 0.09787991642951965, 0.24839554727077484], [-0.2287275344133377, -0.3148593306541443, 0.22875195741653442, -0.1729917973279953, 0.0043584019877016544, -0.30730634927749634, 0.28971728682518005, 0.24360999464988708, -0.05209806188941002, -0.12984563410282135, 0.40735340118408203, 0.34200626611709595, 0.1436200588941574, -0.3737919330596924, 0.0296088308095932, 0.20463012158870697, -0.07135823369026184, -0.1581873744726181, -0.21798300743103027, 0.05870848521590233, -0.06327803432941437, -0.20751547813415527, 0.11783431470394135, 0.0009794941870495677, -0.1891881823539734, 0.08982021361589432, -0.13175038993358612, -0.35354000329971313, -0.3418641686439514, -0.0623246468603611], [0.0030329900328069925, -0.2680518627166748, 0.01987845078110695, 0.07104585319757462, 0.22410868108272552, -0.24236822128295898, 0.09280329197645187, -0.09452414512634277, -0.3324175179004669, -0.3110651671886444, -0.020084485411643982, -0.13111373782157898, -0.15366078913211823, -0.2885807752609253, 0.014783592894673347, 0.08157221227884293, 0.0030057807452976704, -0.03403232991695404, -0.2637271285057068, 0.17485643923282623, 0.26483187079429626, -0.10821385681629181, 0.42434635758399963, 0.08300536870956421, 0.3777382969856262, 0.4336971640586853, -0.19686855375766754, 0.19713418185710907, -0.1645796149969101, -0.06036857143044472]], "Bias": [-0.08118652552366257, -0.07339753955602646, 0.06132744625210762, -0.10064090043306351, 0.07305295020341873, -0.06990532577037811, 0.10506430268287659, 0.07939667999744415, -0.0949753001332283, -0.06488868594169617, 0.0972348004579544, 0.09863468259572983, 0.0792073905467987, -0.09297648817300797, -0.1101611852645874, 0.07101041078567505, -0.0981777161359787, -0.11043715476989746, -0.08382627367973328, 0.07590746879577637, 0.08916957676410675, -0.06946838647127151, 0.07055418193340302, -0.07369811832904816, 0.06548371911048889, 0.08465243875980377, -0.07819443196058273, -0.09824219346046448, -0.08019397407770157, -0.08075535297393799]}, "Layer 2": {"Weight": [[0.1913117617368698], [0.25566425919532776], [-0.062499914318323135], [0.1870339810848236], [-0.3941258192062378], [0.24884654581546783], [-0.15867982804775238], [-0.28136587142944336], [0.18777590990066528], [0.32508042454719543], [-0.1278495341539383], [-0.20548991858959198], [-0.36751019954681396], [0.165598064661026], [0.1482057273387909], [-0.39288318157196045], [0.13677076995372772], [0.12742403149604797], [0.22767658531665802], [-0.44249919056892395], [-0.14209774136543274], [0.2866382300853729], [-0.2606606185436249], [0.3982032835483551], [-0.39616063237190247], [-0.16073855757713318], [0.2714589536190033], [0.1542816460132599], [0.1770113706588745], [0.205807626247406]], "Bias": [-0.07487548887729645]}, "Activation": "Relu"}